  { "nodeid": 0, "depth": 0, "split": "GRZHZT", "split_condition": 2, "yes": 1, "no": 2, "missing": 1 , "children": [     { "nodeid": 1, "depth": 1, "split": "DWSSHY", "split_condition": 15, "yes": 3, "no": 4, "missing": 3 , "children": [       { "nodeid": 3, "leaf": -0.187160745 },        { "nodeid": 4, "leaf": -0.131290004 }     ]},      { "nodeid": 2, "depth": 1, "split": "GRZHZT", "split_condition": 5, "yes": 5, "no": 6, "missing": 5 , "children": [       { "nodeid": 5, "leaf": 0.193103448 },        { "nodeid": 6, "leaf": 0.0526315831 }     ]}   ]}
  { "nodeid": 0, "depth": 0, "split": "GRZHZT", "split_condition": 2, "yes": 1, "no": 2, "missing": 1 , "children": [     { "nodeid": 1, "depth": 1, "split": "DWSSHY", "split_condition": 15, "yes": 3, "no": 4, "missing": 3 , "children": [       { "nodeid": 3, "leaf": -0.169759557 },        { "nodeid": 4, "leaf": -0.118362501 }     ]},      { "nodeid": 2, "depth": 1, "split": "GRZHZT", "split_condition": 5, "yes": 5, "no": 6, "missing": 5 , "children": [       { "nodeid": 5, "leaf": 0.17609185 },        { "nodeid": 6, "leaf": 0.0695680603 }     ]}   ]}
  { "nodeid": 0, "depth": 0, "split": "DWSSHY", "split_condition": 15, "yes": 1, "no": 2, "missing": 1 , "children": [     { "nodeid": 1, "depth": 1, "split": "GRZHZT", "split_condition": 2, "yes": 3, "no": 4, "missing": 3 , "children": [       { "nodeid": 3, "leaf": -0.156637862 },        { "nodeid": 4, "leaf": 0.152348146 }     ]},      { "nodeid": 2, "depth": 1, "split": "GRYJCE", "split_condition": 747.440002, "yes": 5, "no": 6, "missing": 5 , "children": [       { "nodeid": 5, "leaf": -0.144210264 },        { "nodeid": 6, "leaf": -0.0413662866 }     ]}   ]}
  { "nodeid": 0, "depth": 0, "split": "DWSSHY", "split_condition": 15, "yes": 1, "no": 2, "missing": 1 , "children": [     { "nodeid": 1, "depth": 1, "split": "GRZHZT", "split_condition": 2, "yes": 3, "no": 4, "missing": 3 , "children": [       { "nodeid": 3, "leaf": -0.146193072 },        { "nodeid": 4, "leaf": 0.137655646 }     ]},      { "nodeid": 2, "depth": 1, "split": "GRYJCE", "split_condition": 747.440002, "yes": 5, "no": 6, "missing": 5 , "children": [       { "nodeid": 5, "leaf": -0.132047102 },        { "nodeid": 6, "leaf": -0.0427833274 }     ]}   ]}
  { "nodeid": 0, "depth": 0, "split": "DWJJLX", "split_condition": 185, "yes": 1, "no": 2, "missing": 1 , "children": [     { "nodeid": 1, "depth": 1, "split": "GRZHZT", "split_condition": 2, "yes": 3, "no": 4, "missing": 3 , "children": [       { "nodeid": 3, "leaf": -0.136609226 },        { "nodeid": 4, "leaf": 0.134816915 }     ]},      { "nodeid": 2, "depth": 1, "split": "DWJJLX", "split_condition": 195, "yes": 5, "no": 6, "missing": 5 , "children": [       { "nodeid": 5, "leaf": 0.134066537 },        { "nodeid": 6, "leaf": -0.116221964 }     ]}   ]}
  { "nodeid": 0, "depth": 0, "split": "DWSSHY", "split_condition": 15, "yes": 1, "no": 2, "missing": 1 , "children": [     { "nodeid": 1, "depth": 1, "split": "GRZHZT", "split_condition": 2, "yes": 3, "no": 4, "missing": 3 , "children": [       { "nodeid": 3, "leaf": -0.130476803 },        { "nodeid": 4, "leaf": 0.130891323 }     ]},      { "nodeid": 2, "depth": 1, "split": "GRYJCE", "split_condition": 784.942505, "yes": 5, "no": 6, "missing": 5 , "children": [       { "nodeid": 5, "leaf": -0.111347608 },        { "nodeid": 6, "leaf": -0.0214216541 }     ]}   ]}
  { "nodeid": 0, "depth": 0, "split": "DWSSHY", "split_condition": 15, "yes": 1, "no": 2, "missing": 1 , "children": [     { "nodeid": 1, "depth": 1, "split": "GRZHZT", "split_condition": 2, "yes": 3, "no": 4, "missing": 3 , "children": [       { "nodeid": 3, "leaf": -0.124260537 },        { "nodeid": 4, "leaf": 0.127549246 }     ]},      { "nodeid": 2, "depth": 1, "split": "DWJJLX", "split_condition": 183, "yes": 5, "no": 6, "missing": 5 , "children": [       { "nodeid": 5, "leaf": -0.0989128947 },        { "nodeid": 6, "leaf": 0.00076171913 }     ]}   ]}
  { "nodeid": 0, "depth": 0, "split": "DWSSHY", "split_condition": 15, "yes": 1, "no": 2, "missing": 1 , "children": [     { "nodeid": 1, "depth": 1, "split": "GRZHZT", "split_condition": 2, "yes": 3, "no": 4, "missing": 3 , "children": [       { "nodeid": 3, "leaf": -0.118413165 },        { "nodeid": 4, "leaf": 0.116782129 }     ]},      { "nodeid": 2, "depth": 1, "split": "GRYJCE", "split_condition": 739.307495, "yes": 5, "no": 6, "missing": 5 , "children": [       { "nodeid": 5, "leaf": -0.103881143 },        { "nodeid": 6, "leaf": -0.016469717 }     ]}   ]}
  { "nodeid": 0, "depth": 0, "split": "DWJJLX", "split_condition": 177, "yes": 1, "no": 2, "missing": 1 , "children": [     { "nodeid": 1, "depth": 1, "split": "GRZHZT", "split_condition": 2, "yes": 3, "no": 4, "missing": 3 , "children": [       { "nodeid": 3, "leaf": -0.111497544 },        { "nodeid": 4, "leaf": 0.115954496 }     ]},      { "nodeid": 2, "depth": 1, "split": "DWJJLX", "split_condition": 195, "yes": 5, "no": 6, "missing": 5 , "children": [       { "nodeid": 5, "leaf": 0.145269901 },        { "nodeid": 6, "leaf": -0.0906211212 }     ]}   ]}
  { "nodeid": 0, "depth": 0, "split": "DWSSHY", "split_condition": 14, "yes": 1, "no": 2, "missing": 1 , "children": [     { "nodeid": 1, "depth": 1, "split": "GRZHZT", "split_condition": 2, "yes": 3, "no": 4, "missing": 3 , "children": [       { "nodeid": 3, "leaf": -0.113653444 },        { "nodeid": 4, "leaf": 0.111154787 }     ]},      { "nodeid": 2, "depth": 1, "split": "DWJJLX", "split_condition": 177, "yes": 5, "no": 6, "missing": 5 , "children": [       { "nodeid": 5, "leaf": -0.0867692605 },        { "nodeid": 6, "leaf": -0.00835803989 }     ]}   ]}
  { "nodeid": 0, "depth": 0, "split": "DWSSHY", "split_condition": 14, "yes": 1, "no": 2, "missing": 1 , "children": [     { "nodeid": 1, "depth": 1, "split": "GRZHZT", "split_condition": 2, "yes": 3, "no": 4, "missing": 3 , "children": [       { "nodeid": 3, "leaf": -0.109804325 },        { "nodeid": 4, "leaf": 0.0997169241 }     ]},      { "nodeid": 2, "depth": 1, "split": "GRYJCE", "split_condition": 796.142517, "yes": 5, "no": 6, "missing": 5 , "children": [       { "nodeid": 5, "leaf": -0.0841862187 },        { "nodeid": 6, "leaf": -0.00951340701 }     ]}   ]}
  { "nodeid": 0, "depth": 0, "split": "DWSSHY", "split_condition": 14, "yes": 1, "no": 2, "missing": 1 , "children": [     { "nodeid": 1, "depth": 1, "split": "GRZHZT", "split_condition": 2, "yes": 3, "no": 4, "missing": 3 , "children": [       { "nodeid": 3, "leaf": -0.106502727 },        { "nodeid": 4, "leaf": 0.0954016969 }     ]},      { "nodeid": 2, "depth": 1, "split": "DWJJLX", "split_condition": 177, "yes": 5, "no": 6, "missing": 5 , "children": [       { "nodeid": 5, "leaf": -0.0773002729 },        { "nodeid": 6, "leaf": 0.0017032394 }     ]}   ]}
  { "nodeid": 0, "depth": 0, "split": "DWSSHY", "split_condition": 15, "yes": 1, "no": 2, "missing": 1 , "children": [     { "nodeid": 1, "depth": 1, "split": "GRZHZT", "split_condition": 2, "yes": 3, "no": 4, "missing": 3 , "children": [       { "nodeid": 3, "leaf": -0.0983024165 },        { "nodeid": 4, "leaf": 0.0977736637 }     ]},      { "nodeid": 2, "depth": 1, "split": "GRYJCE", "split_condition": 739.307495, "yes": 5, "no": 6, "missing": 5 , "children": [       { "nodeid": 5, "leaf": -0.0819410533 },        { "nodeid": 6, "leaf": 0.00490384735 }     ]}   ]}
  { "nodeid": 0, "depth": 0, "split": "DWJJLX", "split_condition": 177, "yes": 1, "no": 2, "missing": 1 , "children": [     { "nodeid": 1, "depth": 1, "split": "DWJJLX", "split_condition": 115, "yes": 3, "no": 4, "missing": 3 , "children": [       { "nodeid": 3, "leaf": -0.0677250624 },        { "nodeid": 4, "leaf": -0.104051508 }     ]},      { "nodeid": 2, "depth": 1, "split": "DWJJLX", "split_condition": 195, "yes": 5, "no": 6, "missing": 5 , "children": [       { "nodeid": 5, "leaf": 0.156660184 },        { "nodeid": 6, "leaf": -0.0693324581 }     ]}   ]}
  { "nodeid": 0, "depth": 0, "split": "DWSSHY", "split_condition": 14, "yes": 1, "no": 2, "missing": 1 , "children": [     { "nodeid": 1, "depth": 1, "split": "GRZHZT", "split_condition": 2, "yes": 3, "no": 4, "missing": 3 , "children": [       { "nodeid": 3, "leaf": -0.0961940736 },        { "nodeid": 4, "leaf": 0.092902787 }     ]},      { "nodeid": 2, "depth": 1, "split": "GRYJCE", "split_condition": 794.790039, "yes": 5, "no": 6, "missing": 5 , "children": [       { "nodeid": 5, "leaf": -0.0683228895 },        { "nodeid": 6, "leaf": 0.00111304724 }     ]}   ]}
  { "nodeid": 0, "depth": 0, "split": "DWJJLX", "split_condition": 177, "yes": 1, "no": 2, "missing": 1 , "children": [     { "nodeid": 1, "depth": 1, "split": "DWJJLX", "split_condition": 115, "yes": 3, "no": 4, "missing": 3 , "children": [       { "nodeid": 3, "leaf": -0.0594243817 },        { "nodeid": 4, "leaf": -0.0985846817 }     ]},      { "nodeid": 2, "depth": 1, "split": "DWJJLX", "split_condition": 195, "yes": 5, "no": 6, "missing": 5 , "children": [       { "nodeid": 5, "leaf": 0.145852476 },        { "nodeid": 6, "leaf": -0.0614285246 }     ]}   ]}
  { "nodeid": 0, "depth": 0, "split": "DWSSHY", "split_condition": 14, "yes": 1, "no": 2, "missing": 1 , "children": [     { "nodeid": 1, "depth": 1, "split": "GRZHZT", "split_condition": 2, "yes": 3, "no": 4, "missing": 3 , "children": [       { "nodeid": 3, "leaf": -0.0925102383 },        { "nodeid": 4, "leaf": 0.0896438286 }     ]},      { "nodeid": 2, "depth": 1, "split": "GRYJCE", "split_condition": 739.307495, "yes": 5, "no": 6, "missing": 5 , "children": [       { "nodeid": 5, "leaf": -0.0667830184 },        { "nodeid": 6, "leaf": 0.00193359354 }     ]}   ]}
  { "nodeid": 0, "depth": 0, "split": "DWSSHY", "split_condition": 12, "yes": 1, "no": 2, "missing": 1 , "children": [     { "nodeid": 1, "depth": 1, "split": "GRZHZT", "split_condition": 2, "yes": 3, "no": 4, "missing": 3 , "children": [       { "nodeid": 3, "leaf": -0.091098316 },        { "nodeid": 4, "leaf": 0.0803790987 }     ]},      { "nodeid": 2, "depth": 1, "split": "DWJJLX", "split_condition": 177, "yes": 5, "no": 6, "missing": 5 , "children": [       { "nodeid": 5, "leaf": -0.0561854951 },        { "nodeid": 6, "leaf": 0.0166140851 }     ]}   ]}
  { "nodeid": 0, "depth": 0, "split": "DWSSHY", "split_condition": 14, "yes": 1, "no": 2, "missing": 1 , "children": [     { "nodeid": 1, "depth": 1, "split": "GRZHZT", "split_condition": 2, "yes": 3, "no": 4, "missing": 3 , "children": [       { "nodeid": 3, "leaf": -0.0866492614 },        { "nodeid": 4, "leaf": 0.0918314457 }     ]},      { "nodeid": 2, "depth": 1, "split": "GRYJCE", "split_condition": 693.165039, "yes": 5, "no": 6, "missing": 5 , "children": [       { "nodeid": 5, "leaf": -0.064027369 },        { "nodeid": 6, "leaf": -0.00128556869 }     ]}   ]}
  { "nodeid": 0, "depth": 0, "split": "DWSSHY", "split_condition": 12, "yes": 1, "no": 2, "missing": 1 , "children": [     { "nodeid": 1, "depth": 1, "split": "GRZHDNGJYE", "split_condition": 6326.64014, "yes": 3, "no": 4, "missing": 3 , "children": [       { "nodeid": 3, "leaf": -0.0887161121 },        { "nodeid": 4, "leaf": -0.0191927664 }     ]},      { "nodeid": 2, "depth": 1, "split": "GRYJCE", "split_condition": 665.867493, "yes": 5, "no": 6, "missing": 5 , "children": [       { "nodeid": 5, "leaf": -0.0662619546 },        { "nodeid": 6, "leaf": -0.00176904688 }     ]}   ]}
